                 -1.04435302819120745532
                 -1.28331763212606508873
                  0.05028137363509965069
                  0.40381640399024243404
                 -1.35856085099123635729
                 -3.52064036226851273526
                  3.44549556104590015693
                 -3.37458112321535752542
                  3.21596022625369570846
                 -3.23256304145538031491
                  3.16176044711458592573
                 -2.38057354085040495661
                  2.97678686974861772541
                  2.87937131430588921788
                  2.87912242386190975196
                 -2.79842095072151497703
                  2.70531217806668822234
                  2.66419333870971053457
                 -2.59303386893507958888
                  2.52257294873378423716
                  2.38570439710241233300
                  2.47149673080734055830
                 -2.30519783163206648524
                 -2.18957906111379330127
                 -2.19050107970850405081
                  1.95409866991370373412
                 -2.02478131192191401766
                 -1.98364682910650191872
                 -1.95000745692302523970
                  1.19778708119143195709
                 -1.86762998594667939400
                 -1.67585223036902064564
                  1.43730432057134449586
                 -1.15754348946491680827
                 -1.45196344002498234360
                 -1.79169038252699941438
                  1.28811465917572576245
                 -1.34381067166464562845
                  1.18677469077530806096
                 -1.10610730545490643095
                 -0.93345421202306977371
                 -0.93552961532466338834
                  0.44411701049123547547
                 -0.51630518094611355107
                 -0.35645218093316827224
                  0.76953455437339535194
                 -0.56226958955853367783
                 -0.53399248828503076414
                  0.50454483775823033564
                 -0.29309852016630988381
                 -0.14646075107309070029
                 -0.50589220520072675225
                  0.38665598569524500805
                 -0.18891278383600498825
                  0.27624952393261442696
                  0.03743047834634990328
                 -0.42653475129718454451
                 -0.38789194412888411412
                  0.14059075068262566477
                  0.02850223985353645198
                  0.47214556319186218314
                 -0.55847184978696473578
                  0.54075958577589855469
                  0.79456674605964938696
                  0.47079641455356663338
                  0.59594502510252567173
                 -0.73223376646862736727
                 -1.18878666088736228978
                 -0.67253392187970917337
                 -0.92368953309268064800
                 -0.84192536720411026430
                 -0.81744661616950808902
                  0.95931549909350344318
                  1.30285240911884159232
                 -1.44443112771432580210
                 -1.33628042261964585791
                 -1.46118591498198413525
                 -1.43747220437944012161
                 -1.24335964775627560996
                 -1.04707172588595920359
                  1.81574086783240340459
                 -1.58709941256284281508
                 -2.29115163324334281114
                 -1.78391007240792176525
                  2.06433635918873825688
                  2.26073154793899044890
                 -1.74286493814725895746
                  2.20046357610691156736
                 -2.00018121420414685119
                  2.45537931887930360730
                 -2.61154159287803500078
                 -1.94517988332307090182
                 -2.20129228883329686184
                 -2.74982876103059492578
                 -2.84059529878729399854
                 -2.48796895544622209684
                 -2.77148182775584883686
                 -3.02217885165774546863
                  2.43839994127567205595
                 -3.28425819481648728626
                 -3.27073514274895549292
                  3.31639875533717098932
                  3.35024385156644521899
                  3.44223592634945596558
                 -3.59376787256334839782
                  0.04055893780349321964
